0.00694483805763464,-0.977708599500187,-0.977634126203416,-1.03466323947053,-1.08849504305425,-1.06704493482872,-0.0430510180199969,0.104298621497108,-1.0209235925791,-1.01168561153922,-0.00741846545872072,0.0303637684995115,0.013026904901827,0.00973330168532065,0.00526525086816365,-1.01713652329821,-0.99465985151575,-0.99771373977394,0.00200936016041235,0.00649236899482915,-0.00895677286047019,-0.998994974629504,-0.974427027977292,0.025090451117589,-1.02450073859873,0.0315559087513867,-1.03208169307906,0.00188315229099574,-0.00372557101264799,0.00978902195454215,-0.0148650040027375,-1.01879801061693,-0.97033517158617,-0.968793121443579,-1.03282724919941,-0.95710014355445,-0.993982934282874,-0.0113540667944841,-1.01186935469465,-0.987001654897556,-1.01714901361137,-0.0163336626130144,0.034905070713229,0.0359954362841511,-1.02782565463328,-0.963477708710951,-0.859378870021829,-0.94942166567938,0.0792907823085999,-0.832445244580098,0.152511621246845,0.0146503655363206,-1.17208464623411,-0.0628571925316457,-0.0418248612691921,-1.00394846633662,-0.0917918975112244,-0.0688195085696045,-0.0692664645581299,0.0927595798734831,-1.07214535081572,-0.0394357531113179,-1.06651633723054,-0.0751150472973108,-0.0735654399558668,-1.0212168140295,-0.936335136887799,0.229129804291336,-0.0264842368395134,0.0379895737893723,-0.619202374518933,0.272268197440328,-0.928577141865413,-0.346445975872293,-0.00410228813765701,0.209180179273586,0.309304474135727,0.816994001435654,2.26887648005659,-0.00512323823451378,0.237762996377267,0.306785399743033,0.854655404157676,2.27353278945307,-0.0257488888418407,0.231299854620305,0.269501620208774,0.829354987115798,2.27030383861577,
